[-0.30623289942741394, 0.04249026998877525, -0.04364486038684845, 0.19385088980197906, -0.20242510735988617, 0.38302183151245117, 0.42503467202186584, 0.2876459062099457, 0.015968535095453262, 0.32205942273139954, 0.2869313955307007, 0.2738247215747833, -0.03654661402106285, 0.19515207409858704, -0.02833462692797184, 0.247380331158638, -0.12474381178617477, -0.025503864511847496, -0.2759460508823395, 0.1954222470521927, 0.13404405117034912, 0.14041733741760254, 0.14173658192157745, -0.07471644133329391, 0.18422649800777435, 0.1282741278409958, -0.3455350399017334, -0.32875046133995056, -0.21925929188728333, -0.07972429692745209, 0.43791958689689636, 0.1586018204689026, -0.20476220548152924, 0.0553370825946331, -0.0555141344666481, 0.03524957597255707, -0.3617997467517853, 0.3299032747745514, -0.0239563025534153, 0.3734050393104553, 0.43238502740859985, -0.3730095326900482, -0.014830617234110832, 0.20710201561450958, -0.06733676046133041, 0.033614929765462875, 0.054599083960056305, -0.15014512836933136, 0.2352556586265564, -0.22780770063400269, -0.060178492218256, -0.03467191383242607, -0.13080944120883942, 0.12588255107402802, -0.02838190644979477, -0.20129552483558655, -0.23917436599731445, 0.060687314718961716, 0.16973921656608582, 0.17913977801799774, 0.05989297851920128, -0.2793615460395813, 0.18000724911689758, 0.16611912846565247, 0.10294444859027863, 0.01304897852241993, 0.12055311352014542, 0.00492063257843256, 0.05327596515417099, -0.06639215350151062, 0.30418869853019714, -0.0726141631603241, 0.2250407636165619, 0.08666525036096573, 0.30240780115127563, -0.0699646845459938, -0.24605345726013184, 0.2905421853065491, 0.34326568245887756, -0.17621509730815887, 0.21705037355422974, -0.39715808629989624, -0.16745063662528992, 0.07728544622659683, -0.07956747710704803, -0.05409468710422516, -0.3024270236492157, -0.1139938235282898, -0.29901427030563354, 0.13338220119476318, -0.02615043707191944, -0.21717768907546997, 0.20674709975719452, 0.3717196583747864, -0.19800353050231934, 0.24710319936275482, 0.1071801632642746, 0.27282974123954773, 0.28306782245635986, 0.026953058317303658, 0.0642656534910202, 0.12501700222492218, 0.18987897038459778, 0.111082062125206, 0.3017483949661255, -0.19163233041763306, -0.07691355794668198, -0.2001022845506668, -0.16713009774684906, 0.3004205822944641, 0.08048070967197418, 0.4123474955558777, -0.10893125832080841, 0.13599734008312225, 0.013960241340100765, -0.18485000729560852, 0.05805002525448799, 0.13218149542808533, 0.13169242441654205, 0.1598026603460312, -0.04207870364189148, -0.16527336835861206, -0.24762499332427979, 0.28150075674057007, 0.14405077695846558, -0.06985855102539062, 0.15789483487606049, -0.2150413990020752, -0.3497678339481354, -0.16720904409885406, 0.24475841224193573, 0.14488545060157776, 0.11713976413011551, 0.3045194447040558, -0.16893929243087769, -0.3840946555137634, 0.20075853168964386, -0.08820053935050964, 0.005430069752037525, 0.19056904315948486, -0.19339746236801147, 0.27564123272895813, -0.04449715092778206, 0.12949177622795105, -0.12286849319934845, 0.14154750108718872, 0.27306270599365234, -0.07978580892086029, -0.07779260724782944, 0.318077027797699, 0.23226115107536316, -0.18822064995765686, 0.15755850076675415, 0.16616037487983704, -0.35445693135261536, 0.06870364397764206, -0.28924864530563354, 0.12230992317199707, -0.1938811093568802, 0.022223079577088356, -0.07366789132356644, 0.042015980929136276, 0.05754437297582626, 0.19897812604904175, -0.11439899355173111, 0.12720170617103577, 0.038574688136577606, 0.06549324840307236, -0.10090339928865433, -0.12021665275096893, 0.04090794548392296, 0.2648566663265228, 0.23483191430568695, -0.11395513266324997, 0.14455240964889526, -0.039496760815382004, 0.2255745232105255, 0.09221130609512329, 0.1522051841020584, -0.3536488115787506, 0.21134671568870544, 0.1343502700328827, 0.24165858328342438, 0.11801286041736603, -0.1668674498796463, -0.188767209649086, -0.059329546988010406, 0.1497877985239029, -0.1107284352183342, -0.2796690762042999, 0.07891985028982162, 0.231685072183609, 0.15827663242816925, 0.2184201329946518, 0.10378122329711914, 0.008308548480272293, 0.12466995418071747, -0.0725804790854454, 0.29622483253479004, -0.04709498956799507, 0.20896416902542114, -0.01659901812672615, 0.1822625696659088, 0.14518530666828156, 0.19480761885643005, 0.10988977551460266, 0.10804788768291473, 0.21478770673274994, 0.2867540121078491, 0.07592598348855972]