[0.2342350333929062, -0.3899032473564148, 0.0061382148414850235, -0.28325772285461426, 0.08585996180772781, -0.1285458505153656, -0.3429563045501709, -0.20442919433116913, -0.274213582277298, -0.2455776184797287, -0.0709066092967987, 0.2302672117948532, -0.13327260315418243, 0.234630286693573, -0.04100251942873001, 0.1882464736700058, 0.29421067237854004, 0.29416462779045105, -0.3402959406375885, 0.187252476811409, -0.3578137457370758, -0.29269105195999146, -0.3470938205718994, -0.07390987128019333, -0.088727667927742, -0.10759390890598297, -0.505704939365387, 0.01661350205540657, -0.12457814812660217, 0.00981815904378891, -0.1314600110054016, -0.4609638452529907, 0.33341193199157715, -0.36969491839408875, -0.03413841128349304, -0.4498189687728882, 0.3167790174484253, 0.10233167558908463, 0.24464662373065948, -0.2607700526714325, 0.2706613540649414, -0.17692631483078003, 0.2193090170621872, -0.09136398136615753, 0.02680107019841671, 0.1277308613061905, 0.05416459962725639, 0.18892385065555573, 0.08299431204795837, 0.37061595916748047, 0.03681106120347977, -0.05974883958697319, -0.037423886358737946, -0.0227051991969347, 0.1669718325138092, 0.054245952516794205, 0.44337397813796997, 0.081868015229702, -0.11056054383516312, -0.1606951653957367, 0.46759065985679626, -0.3937797546386719, -0.09784067422151566, 0.18838246166706085, -0.29665759205818176, -0.0021602807100862265, -0.3805399239063263, 0.08234181255102158, 0.07041464745998383, 0.30669644474983215, 0.3036268353462219, 0.13599181175231934, -0.22758421301841736, -0.19539517164230347, -0.21783609688282013, 0.14902347326278687, 0.4051870107650757, 0.09553641825914383, 0.17573240399360657, -0.1234656572341919, 0.10397643595933914, -0.38475310802459717, 0.2445039004087448, -0.0690188929438591, 0.13238714635372162, 0.04629615321755409, -0.1357099413871765, -0.2896995544433594, 0.1258358359336853, -0.14618223905563354, -0.10102900117635727, 0.27081552147865295, -0.36670058965682983, -0.38668107986450195, 0.09006081521511078, 0.2671283185482025, -0.329701691865921, 0.06628426909446716, 0.03849250450730324, 0.3308532238006592, -0.36690807342529297, 0.08974968641996384, -0.022901015356183052, -0.0020063468255102634, -0.27841269969940186, 0.2596158981323242, 0.07468432933092117, -0.2545429766178131, 0.10538671165704727, 0.18176670372486115, -0.06082017719745636, 0.0033730107825249434, -0.06723243743181229, 0.20379756391048431, -0.1312258541584015, -0.42190515995025635, -0.10948517918586731, -0.029410209506750107, -0.19182837009429932, -0.20189891755580902, 0.3765638768672943, -0.0578530989587307, 0.32519975304603577, 0.2716463506221771, -0.030231162905693054, -0.1582552045583725, -0.1757379025220871, -0.0734366923570633, 0.008142556063830853, -0.17968666553497314, -0.13762027025222778, 0.1253281533718109, -0.2199074774980545, 0.055483441799879074, -0.24632896482944489, -0.054468460381031036, 0.1474795788526535, -0.1582617461681366, -0.14222493767738342, 0.014840391464531422, 0.04850951209664345, 0.03139018639922142, -0.047276243567466736, 0.17400236427783966, -0.3828919529914856, -0.24245092272758484, -0.19015707075595856, -0.19303302466869354, -0.07453510910272598, 0.008669479750096798, 0.17862045764923096, -0.2287033647298813, -0.088909812271595, -0.10880573093891144, -0.08993816375732422, -0.21495135128498077, -0.20520327985286713, 0.21507003903388977, -0.2510542869567871, -0.25057652592658997, 0.06955327838659286, -0.02915942668914795, 0.08765935897827148, 0.18536929786205292, -0.08272068947553635, -0.10128533840179443, 0.0226892177015543, -0.0021281002555042505, -0.04450230672955513, -0.08477834612131119, 0.06508446484804153, -0.2382170706987381, -0.1739516407251358, 0.18877767026424408, -0.04035702347755432, -0.12597329914569855, 0.07339933514595032, 0.00967580545693636, 0.2778438329696655, 0.13061095774173737, -0.14489029347896576, -0.07488223910331726, -0.08729332685470581, -0.11747285723686218, -0.21466197073459625, 0.1419317126274109, -0.1084323301911354, 0.018772542476654053, -0.27457138895988464, -0.013634053990244865, 0.2214556187391281, 0.048856135457754135, 0.24400389194488525, 0.32598209381103516, -0.3166459798812866, 0.21671544015407562, -0.04721427336335182, 0.1504717469215393, 0.01820172369480133, -0.15995199978351593, -0.17689728736877441, -0.2365310788154602, 0.2477584034204483, 0.15524694323539734, -0.12425239384174347, -0.12288372963666916, -0.20933178067207336, 0.14106610417366028, -0.20378606021404266, 0.0181458480656147]