[-0.20134499669075012, -0.19722488522529602, -0.11364434659481049, 0.12453562021255493, -0.09936729818582535, -0.576015830039978, 0.055772893130779266, -0.028813187032938004, -0.5075146555900574, -0.4314677119255066, -0.024293603375554085, -0.022839514538645744, 0.23426192998886108, 0.14642761647701263, 0.02919883467257023, 0.07162321358919144, 0.0644078478217125, -0.3739243149757385, 0.18536974489688873, 0.005411526653915644, 0.4755087196826935, 0.18461689352989197, 0.32324615120887756, 0.4369887113571167, 0.28588294982910156, -0.02459941990673542, -0.056118905544281006, 0.39264535903930664, -0.25056201219558716, -0.017861757427453995, -0.18324284255504608, -0.07803510129451752, 0.09069714695215225, -0.31474602222442627, -0.09315717220306396, -0.13734565675258636, 0.13583940267562866, 0.4549699127674103, -0.11803006380796432, -0.2344505935907364, -0.1364419311285019, 0.25768476724624634, 0.13501636683940887, 0.06199807673692703, -0.0855834111571312, -0.06664864718914032, -0.23094753921031952, 0.4551515579223633, 0.0030143794137984514, 0.1718556433916092, -0.11622397601604462, 0.1298401951789856, -0.08047839999198914, -0.12328195571899414, -0.10540162771940231, 0.13413649797439575, 0.06166454032063484, -0.0869939848780632, -0.18798865377902985, -0.12362023442983627, 0.24828095734119415, 0.3394380509853363, -0.01101409737020731, -0.4118479788303375, 0.3699355125427246, -0.0633997768163681, 0.15388350188732147, 0.3306589424610138, 0.16451464593410492, -0.1209249198436737, -0.10555754601955414, 0.11788412183523178, -0.3110806941986084, -0.11007101088762283, -0.060312431305646896, 0.3844429552555084, -0.021688418462872505, -0.312518835067749, -0.19633492827415466, 0.42320746183395386, -0.006573880091309547, 0.28173986077308655, 0.0716361477971077, 0.14450065791606903, 0.3107563555240631, -0.16479910910129547, 0.15915925800800323, 0.012440603226423264, 0.09447631984949112, -0.05369698628783226, 0.24702991545200348, -0.13205716013908386, 0.2811739444732666, 0.3169713318347931, -0.07061105221509933, -0.26904284954071045, -0.28054797649383545, -0.23704072833061218, 0.2576524317264557, -0.17108051478862762, 0.16149969398975372, -0.2220299392938614, -0.19619764387607574, 0.022911056876182556, 0.2041069120168686, 0.15301157534122467, -0.000456091423984617, -0.2135709673166275, 0.11107471585273743, 0.23270566761493683, -0.0881180688738823, 0.07101410627365112, -0.22063320875167847, -0.0680994763970375, 0.32020896673202515, -0.20933303236961365, -0.016471074894070625, -0.09964088350534439, -0.20241473615169525, 0.28110960125923157, -0.015415923669934273, 0.08319106698036194, -0.14346875250339508, -0.1343439668416977, 0.13524778187274933, 0.05671222507953644, -0.11823166161775589, -0.11249049752950668, -0.10618610680103302, 0.039400048553943634, 0.06235429644584656, -0.19666068255901337, -0.10907577723264694, -0.05489829555153847, 0.4174906313419342, -0.43448606133461, 0.30393433570861816, 0.09324506670236588, -0.1556045114994049, 0.43806007504463196, -0.13593919575214386, 0.31436190009117126, -0.3684234917163849, -0.0038225888274610043, 0.16760756075382233, -0.012227624654769897, 0.10444488376379013, 0.12535500526428223, -0.1612260490655899, 0.39486372470855713, 0.24038991332054138, 0.04304163530468941, -0.28340256214141846, 0.34309494495391846, 0.28233131766319275, -0.3745870590209961, 0.32354477047920227, -0.027289746329188347, -0.4140361249446869, 0.02356366068124771, 0.06857547909021378, 0.2071792483329773, -0.1710556596517563, 0.012260330840945244, -0.13527977466583252, 0.13849037885665894, 0.14533109962940216, -0.03053971938788891, 0.07903018593788147, -0.011032539419829845, -0.047328922897577286, -0.022343212738633156, -0.05042339488863945, 0.26088616251945496, 0.14596931636333466, 0.09419034421443939, -0.02593875303864479, -0.10723911225795746, -0.15453168749809265, -0.08957971632480621, 0.31481319665908813, 0.3100116550922394, -0.1877134144306183, 0.1713620275259018, -0.12644141912460327, 0.2072691023349762, 0.06869539618492126, 0.21096980571746826, -0.17679162323474884, 0.26346278190612793, 0.12067641317844391, 0.14558623731136322, -0.10151990503072739, -0.12578462064266205, 0.20368511974811554, 0.14365734159946442, -0.19326530396938324, -0.26577964425086975, -0.047912511974573135, -0.10214118659496307, 0.17918843030929565, -0.11705944687128067, 0.24029745161533356, -0.004180993884801865, 0.12578342854976654, 0.2863055467605591, 0.06937560439109802, 0.03605719655752182, 0.020675895735621452, 0.19401058554649353]